svm_type c_svc
kernel_type rbf
gamma 0.015625
nr_class 8
total_sv 35
rho -0.86032189387214197 0.80487805110620414 3.2586171778470567 0.86596956496700106 0.13650924314305146 0 -0.063924634293613739 0.17606094479559786 2.1908738385223767 1.1836998164653751 0.14588546487609619 -0.002775115185852902 0.056729789760844022 -0.36419183015821943 -0.018187694097800796 0.10578459513118472 0 0.084084755393201191 -2.8357566303031518 -0.19987134404361301 0 -1.6965791358442985 0.086340692755850837 0 -0.55743596273907503 0 0 0.027639714518338559
label 1 2 3 4 5 6 7 8
probA -0.3842438322296009 -1.0349713375153493 0.31229401187059175 0.27331488839881324 -1.0754094734014343 -1.3205712250694879 -1.1276572072925739 -1.3646003378034035 -1.081825236954755 -0.78496273404463912 -1.5763207876249654 -1.375221315627599 -0.74004660643145148 -0.72825840607137826 -0.36562812162634123 -1.1127456283714319 -1.2043664294410734 -0.96207214995631996 -0.45362306868396229 -1.1827047145759793 -1.3107275175910185 -0.38999994772210644 -1.2985285669275954 -1.3712539191042725 -1.0211375644001788 -1.1828374761251126 -1.0707158843153106 -1.4541105490308499
probB -0.022231592986575965 -0.018369411755477467 -0.14926550148946255 -0.00019237921485781894 0.24984800755764119 0.058388868159811987 0.1322365819007299 0.31422886325775867 0.44562399823420912 -0.051449842991378773 0.033665383531992207 -0.019662719614707877 -0.17204903805654354 -0.13809822107207714 -0.13350910343203262 -0.025222817608433805 -0.041691984359152286 -0.041380374303305115 0.037627213405156179 0.024750436434598403 -0.040541594660021905 -0.15614787927206703 0.20469395302904672 -0.11177173585728729 -0.28391025884643711 -0.18067518513782535 -0.13446054781684066 0.15457760821072122
nr_sv 5 5 5 5 5 5 1 4
SV
125 0 125 0 0 7.580291225463883 125 1:0.48627451 2:0.44081633 3:0.39013453 4:0.38709677 5:0.38839286 6:0.39380531 7:0.40178571 8:0.40639269 9:0.40888889 10:0.41333333 11:0.41517857 12:0.41628959 13:0.4173913 14:0.40772532 15:0.41422594 16:0.40506329 17:0.39917695 18:0.39591837 19:0.39676113 20:0.40408163 21:0.41700405 22:0.4516129 23:0.50202429 24:0.54958678 25:0.58431373 26:0.6 27:0.60392157 28:0.61632653 29:0.61568627 30:0.61568627 31:0.61960784 32:0.62295082 33:0.62352941 34:0.62352941 35:0.62352941 36:0.63265306 37:0.63137255 38:0.63529412 39:0.64313725 40:0.65447154 41:0.65098039 42:0.65490196 43:0.67058824 44:0.67932489 45:0.68548387 46:0.70040486 47:0.696 48:0.69198312 49:0.66798419 50:0.66135458 51:0.6626506 52:0.65957447 53:0.66396761 54:0.66801619 55:0.67479675 56:0.69198312 57:0.69635628 58:0.67346939 59:0.68163265 60:0.68181818 61:0.70484581 62:0.69469027 63:0.71818182 64:0.74299065 65:0.74654378 66:0.71428571 67:0.64705882 68:0.65882353 69:0.62745098 70:0.62352941 71:0.61960784 72:0.61445783 73:0.55918367 74:0.53556485 75:0.5375 76:0.54852321 77:0.56470588 78:0.56078431 79:0.57254902 80:0.58039216 
0 0 29.48478738990757 125 0 0 0 1:0.75686275 2:0.66530612 3:0.58295964 4:0.55760369 5:0.56696429 6:0.56637168 7:0.58482143 8:0.60730594 9:0.62222222 10:0.62666667 11:0.60714286 12:0.59728507 13:0.59130435 14:0.57939914 15:0.57322176 16:0.55696203 17:0.53909465 18:0.52244898 19:0.51821862 20:0.53469388 21:0.58704453 22:0.68145161 23:0.79757085 24:0.88429752 25:0.9372549 26:0.95294118 27:0.95294118 28:0.94285714 29:0.94901961 30:0.95294118 31:0.96078431 32:0.95901639 33:0.95686275 34:0.95686275 35:0.95294118 36:0.95102041 37:0.95294118 38:0.95686275 39:0.96078431 40:0.95934959 41:0.96470588 42:0.96470588 43:0.96862745 44:0.95780591 45:0.95967742 46:0.93927126 47:0.92 48:0.90295359 49:0.90909091 50:0.90836653 51:0.91164659 52:0.9106383 53:0.92307692 54:0.91497976 55:0.92682927 56:0.91139241 57:0.89878543 58:0.90612245 59:0.90612245 60:0.88842975 61:0.87665198 62:0.84513274 63:0.86818182 64:0.85981308 65:0.9124424 66:0.92640693 67:0.9254902 68:0.87843137 69:0.83921569 70:0.82745098 71:0.8 72:0.74698795 73:0.68979592 74:0.66945607 75:0.6875 76:0.67510549 77:0.64705882 78:0.63529412 79:0.64313725 80:0.66666667 
51.071528410508357 0 125 115.34216429798691 0 0 48.349613976360466 1:0.65882353 2:0.57959184 3:0.50224215 4:0.48387097 5:0.48214286 6:0.48672566 7:0.48660714 8:0.48858447 9:0.48444444 10:0.48888889 11:0.48214286 12:0.47058824 13:0.46086957 14:0.45064378 15:0.45188285 16:0.43459916 17:0.42798354 18:0.4244898 19:0.42510121 20:0.43265306 21:0.44939271 22:0.49193548 23:0.55870445 24:0.61157025 25:0.65882353 26:0.68235294 27:0.69411765 28:0.70204082 29:0.70588235 30:0.70980392 31:0.71372549 32:0.71721311 33:0.71764706 34:0.71764706 35:0.71764706 36:0.71836735 37:0.71764706 38:0.7254902 39:0.7372549 40:0.74390244 41:0.74509804 42:0.74901961 43:0.76078431 44:0.75527426 45:0.75 46:0.74898785 47:0.744 48:0.73417722 49:0.71541502 50:0.70517928 51:0.70281124 52:0.70212766 53:0.71255061 54:0.71659919 55:0.69512195 56:0.70464135 57:0.71255061 58:0.73061224 59:0.73469388 60:0.73553719 61:0.74889868 62:0.75221239 63:0.75454545 64:0.73364486 65:0.73271889 66:0.72294372 67:0.7254902 68:0.72156863 69:0.68627451 70:0.68235294 71:0.67058824 72:0.65863454 73:0.60816327 74:0.58577406 75:0.58333333 76:0.58227848 77:0.58823529 78:0.59215686 79:0.60784314 80:0.61176471 
125 125 113.19701149912886 93.61221025824311 106.98750533185381 0 29.612874928060599 1:0.61960784 2:0.60408163 3:0.58295964 4:0.58986175 5:0.58928571 6:0.5840708 7:0.58482143 8:0.58447489 9:0.58666667 10:0.58222222 11:0.58035714 12:0.57918552 13:0.56956522 14:0.55793991 15:0.55230126 16:0.54852321 17:0.53909465 18:0.53877551 19:0.53846154 20:0.54285714 21:0.55465587 22:0.5766129 23:0.59919028 24:0.60330579 25:0.60392157 26:0.6 27:0.59607843 28:0.6 29:0.6 30:0.60784314 31:0.61176471 32:0.6147541 33:0.61568627 34:0.61960784 35:0.61960784 36:0.62040816 37:0.61176471 38:0.61568627 39:0.62352941 40:0.6300813 41:0.62745098 42:0.63921569 43:0.66666667 44:0.67510549 45:0.6733871 46:0.66801619 47:0.656 48:0.64978903 49:0.63241107 50:0.61752988 51:0.61044177 52:0.60851064 53:0.60728745 54:0.59919028 55:0.61788618 56:0.64556962 57:0.64777328 58:0.64081633 59:0.63673469 60:0.66528926 61:0.6784141 62:0.68141593 63:0.67272727 64:0.68224299 65:0.68663594 66:0.69264069 67:0.67843137 68:0.69411765 69:0.66666667 70:0.65882353 71:0.65882353 72:0.65863454 73:0.64081633 74:0.64016736 75:0.65833333 76:0.66666667 77:0.6627451 78:0.65882353 79:0.6627451 80:0.67058824 
108.29165803295841 42.926459464758388 0 125 0 0 0 1:0.60392157 2:0.54285714 3:0.48430493 4:0.49308756 5:0.5 6:0.51327434 7:0.50446429 8:0.50684932 9:0.50666667 10:0.51555556 11:0.52232143 12:0.52488688 13:0.53913043 14:0.53648069 15:0.54393305 16:0.5443038 17:0.53909465 18:0.55102041 19:0.5465587 20:0.55102041 21:0.56680162 22:0.60887097 23:0.65182186 24:0.68595041 25:0.70196078 26:0.70196078 27:0.69411765 28:0.69795918 29:0.69803922 30:0.70196078 31:0.70588235 32:0.70901639 33:0.70980392 34:0.70588235 35:0.70196078 36:0.70612245 37:0.71372549 38:0.71764706 39:0.71764706 40:0.72764228 41:0.72941176 42:0.74117647 43:0.75294118 44:0.75527426 45:0.76209677 46:0.75303644 47:0.752 48:0.73417722 49:0.743083 50:0.74103586 51:0.74698795 52:0.74893617 53:0.75708502 54:0.76518219 55:0.77235772 56:0.76793249 57:0.76518219 58:0.74285714 59:0.74693878 60:0.74380165 61:0.76211454 62:0.77433628 63:0.77727273 64:0.75233645 65:0.74193548 66:0.73593074 67:0.75686275 68:0.77647059 69:0.76078431 70:0.76078431 71:0.75686275 72:0.75100402 73:0.72653061 74:0.71966527 75:0.74166667 76:0.74683544 77:0.75686275 78:0.74117647 79:0.74117647 80:0.72941176 
-120.19271485841806 36.634249551151761 0 0 0 0 0 1:0.56470588 2:0.52244898 3:0.46188341 4:0.46543779 5:0.46875 6:0.48230088 7:0.47767857 8:0.48401826 9:0.48888889 10:0.51111111 11:0.51339286 12:0.52941176 13:0.53913043 14:0.54506438 15:0.55230126 16:0.55274262 17:0.55144033 18:0.55102041 19:0.55465587 20:0.55102041 21:0.55060729 22:0.56854839 23:0.58299595 24:0.59504132 25:0.6 26:0.6 27:0.59215686 28:0.6 29:0.59607843 30:0.60784314 31:0.60392157 32:0.60655738 33:0.60392157 34:0.60392157 35:0.60392157 36:0.6122449 37:0.60784314 38:0.61568627 39:0.61176471 40:0.62195122 41:0.61176471 42:0.62745098 43:0.64705882 44:0.65822785 45:0.65322581 46:0.63562753 47:0.624 48:0.61181435 49:0.62055336 50:0.62151394 51:0.62248996 52:0.62553191 53:0.63157895 54:0.63157895 55:0.63414634 56:0.6371308 57:0.62753036 58:0.6122449 59:0.62040816 60:0.63636364 61:0.65198238 62:0.63716814 63:0.65909091 64:0.65420561 65:0.67281106 66:0.65367965 67:0.65490196 68:0.67843137 69:0.65490196 70:0.65098039 71:0.64705882 72:0.64658635 73:0.61632653 74:0.60669456 75:0.625 76:0.6371308 77:0.64313725 78:0.63137255 79:0.62745098 80:0.63137255 
-0 0 125 0 125 3.0615576406036227 63.992901990601069 1:0.54509804 2:0.52653061 3:0.48878924 4:0.48387097 5:0.47767857 6:0.48672566 7:0.48660714 8:0.48401826 9:0.47555556 10:0.48444444 11:0.48660714 12:0.49321267 13:0.5 14:0.50643777 15:0.51464435 16:0.51476793 17:0.51028807 18:0.51428571 19:0.51821862 20:0.51836735 21:0.52631579 22:0.53629032 23:0.55870445 24:0.56198347 25:0.56470588 26:0.56078431 27:0.55686275 28:0.56734694 29:0.56470588 30:0.57647059 31:0.57647059 32:0.57786885 33:0.57647059 34:0.58039216 35:0.58039216 36:0.58367347 37:0.57647059 38:0.58039216 39:0.58039216 40:0.58943089 41:0.58823529 42:0.60784314 43:0.62745098 44:0.62869198 45:0.625 46:0.61538462 47:0.604 48:0.59493671 49:0.60079051 50:0.60159363 51:0.61044177 52:0.60425532 53:0.60728745 54:0.60728745 55:0.6097561 56:0.61181435 57:0.61538462 58:0.60816327 59:0.63673469 60:0.64049587 61:0.65198238 62:0.62831858 63:0.63636364 64:0.64485981 65:0.65437788 66:0.65367965 67:0.63529412 68:0.65490196 69:0.62745098 70:0.62352941 71:0.62352941 72:0.62248996 73:0.58367347 74:0.57740586 75:0.59166667 76:0.59915612 77:0.60392157 78:0.59607843 79:0.59607843 80:0.60392157 
-125 125 3.586646609760241 94.654997251519021 0 0 0 1:0.61960784 2:0.55510204 3:0.48878924 4:0.48847926 5:0.48660714 6:0.49115044 7:0.49107143 8:0.50228311 9:0.50666667 10:0.51555556 11:0.51339286 12:0.52941176 13:0.53913043 14:0.54077253 15:0.55230126 16:0.54852321 17:0.54320988 18:0.54693878 19:0.55465587 20:0.55918367 21:0.56275304 22:0.56854839 23:0.58704453 24:0.59504132 25:0.59607843 26:0.59607843 27:0.59607843 28:0.60408163 29:0.60784314 30:0.60784314 31:0.60784314 32:0.6147541 33:0.61176471 34:0.60784314 35:0.60392157 36:0.6122449 37:0.61176471 38:0.61176471 39:0.61568627 40:0.63414634 41:0.62745098 42:0.63137255 43:0.64313725 44:0.64978903 45:0.65725806 46:0.66801619 47:0.66 48:0.65822785 49:0.64031621 50:0.62948207 51:0.62248996 52:0.6212766 53:0.63157895 54:0.63562753 55:0.64227642 56:0.66666667 57:0.65991903 58:0.64489796 59:0.6244898 60:0.61570248 61:0.64757709 62:0.65044248 63:0.66818182 64:0.6682243 65:0.66820276 66:0.67532468 67:0.64705882 68:0.66666667 69:0.64313725 70:0.64313725 71:0.64313725 72:0.65461847 73:0.61632653 74:0.60251046 75:0.60416667 76:0.62025316 77:0.62745098 78:0.62352941 79:0.62745098 80:0.63529412 
-39.170471585048688 0 125 0 53.091181881859328 5.6605336292504482 125 1:0.60392157 2:0.49795918 3:0.40358744 4:0.40552995 5:0.40625 6:0.40707965 7:0.40625 8:0.4109589 9:0.43111111 10:0.44888889 11:0.45982143 12:0.46606335 13:0.47391304 14:0.472103 15:0.47698745 16:0.47679325 17:0.48148148 18:0.48979592 19:0.49392713 20:0.48979592 21:0.49392713 22:0.51209677 23:0.53846154 24:0.56198347 25:0.57647059 26:0.58431373 27:0.58431373 28:0.59591837 29:0.59607843 30:0.60392157 31:0.60392157 32:0.60655738 33:0.6 34:0.60392157 35:0.6 36:0.60816327 37:0.60784314 38:0.60784314 39:0.61176471 40:0.62601626 41:0.62352941 42:0.63529412 43:0.64705882 44:0.64135021 45:0.64112903 46:0.6437247 47:0.64 48:0.6371308 49:0.62450593 50:0.62151394 51:0.62248996 52:0.62978723 53:0.62753036 54:0.6194332 55:0.6300813 56:0.64135021 57:0.63562753 58:0.6122449 59:0.62040816 60:0.61570248 61:0.63436123 62:0.61946903 63:0.60909091 64:0.59813084 65:0.60829493 66:0.62770563 67:0.62745098 68:0.64313725 69:0.61568627 70:0.61176471 71:0.60784314 72:0.61044177 73:0.57959184 74:0.56066946 75:0.56666667 76:0.56962025 77:0.58039216 78:0.57647059 79:0.57647059 80:0.58039216 
-125 0 125 125 0 0 45.074433406240551 1:0.67843137 2:0.59591837 3:0.52017937 4:0.50691244 5:0.50446429 6:0.5 7:0.49553571 8:0.50684932 9:0.52 10:0.52 11:0.50892857 12:0.50678733 13:0.50869565 14:0.50214592 15:0.50209205 16:0.5021097 17:0.49794239 18:0.49795918 19:0.49797571 20:0.50612245 21:0.51012146 22:0.54032258 23:0.58704453 24:0.62809917 25:0.65098039 26:0.6627451 27:0.6627451 28:0.67346939 29:0.6745098 30:0.67843137 31:0.68235294 32:0.68852459 33:0.69019608 34:0.69019608 35:0.68235294 36:0.68979592 37:0.69019608 38:0.69803922 39:0.70196078 40:0.71544715 41:0.71764706 42:0.72156863 43:0.72941176 44:0.72995781 45:0.73387097 46:0.74089069 47:0.74 48:0.73417722 49:0.7312253 50:0.71713147 51:0.71485944 52:0.70638298 53:0.71255061 54:0.71659919 55:0.71544715 56:0.74683544 57:0.73684211 58:0.73061224 59:0.70612245 60:0.70247934 61:0.72246696 62:0.71681416 63:0.75 64:0.74299065 65:0.75576037 66:0.74025974 67:0.72156863 68:0.72941176 69:0.70980392 70:0.70588235 71:0.70196078 72:0.69477912 73:0.64897959 74:0.62343096 75:0.62916667 76:0.64135021 77:0.65882353 78:0.65882353 79:0.66666667 80:0.6745098 
-0 -0 0 83.347280093748225 69.408119235445028 0 0 1:0.58431373 2:0.60816327 3:0.60986547 4:0.61751152 5:0.62053571 6:0.63716814 7:0.65178571 8:0.67123288 9:0.68888889 10:0.72 11:0.73214286 12:0.75113122 13:0.75652174 14:0.75536481 15:0.75732218 16:0.75949367 17:0.75720165 18:0.76326531 19:0.76518219 20:0.76326531 21:0.75708502 22:0.75 23:0.72874494 24:0.69421488 25:0.6627451 26:0.63921569 27:0.62352941 28:0.6244898 29:0.61960784 30:0.62352941 31:0.62745098 32:0.62704918 33:0.62352941 34:0.62352941 35:0.61568627 36:0.61632653 37:0.60392157 38:0.60784314 39:0.60784314 40:0.61382114 41:0.60784314 42:0.61960784 43:0.63921569 44:0.64135021 45:0.64516129 46:0.65991903 47:0.664 48:0.66244726 49:0.65217391 50:0.64541833 51:0.63855422 52:0.63404255 53:0.63562753 54:0.6437247 55:0.64634146 56:0.64556962 57:0.63562753 58:0.62040816 59:0.63673469 60:0.62809917 61:0.63436123 62:0.62389381 63:0.65454545 64:0.6728972 65:0.68202765 66:0.68398268 67:0.68235294 68:0.71764706 69:0.70588235 70:0.70196078 71:0.70980392 72:0.73092369 73:0.72244898 74:0.72803347 75:0.74166667 76:0.75527426 77:0.74901961 78:0.7372549 79:0.72941176 80:0.72941176 
-0 -0 0 32.312552254147825 0 0 0 1:0.63921569 2:0.68163265 3:0.69955157 4:0.69585253 5:0.70982143 6:0.72123894 7:0.73214286 8:0.73515982 9:0.74222222 10:0.76444444 11:0.78571429 12:0.80090498 13:0.8173913 14:0.81545064 15:0.82426778 16:0.83122363 17:0.83127572 18:0.83673469 19:0.83805668 20:0.83265306 21:0.82186235 22:0.80645161 23:0.77732794 24:0.73140496 25:0.69411765 26:0.66666667 27:0.65098039 28:0.64897959 29:0.64313725 30:0.64705882 31:0.64705882 32:0.64344262 33:0.64313725 34:0.63921569 35:0.63921569 36:0.63673469 37:0.63137255 38:0.63529412 39:0.63921569 40:0.6504065 41:0.64705882 42:0.65882353 43:0.67843137 44:0.67932489 45:0.68951613 46:0.68825911 47:0.696 48:0.68776371 49:0.68774704 50:0.6812749 51:0.67871486 52:0.67234043 53:0.68016194 54:0.68016194 55:0.67073171 56:0.67510549 57:0.67611336 58:0.66938776 59:0.68163265 60:0.68595041 61:0.70484581 62:0.71238938 63:0.73636364 64:0.73831776 65:0.73271889 66:0.72294372 67:0.72156863 68:0.75686275 69:0.74509804 70:0.74509804 71:0.75294118 72:0.80321285 73:0.8244898 74:0.84100418 75:0.84583333 76:0.83966245 77:0.82745098 78:0.81176471 79:0.8 80:0.8 
-107.22444513293576 -125 125 9.3401676521039434 125 8.1132248650190881 61.840574639808899 1:0.63921569 2:0.60408163 3:0.55156951 4:0.53456221 5:0.53571429 6:0.53982301 7:0.53571429 8:0.543379 9:0.55111111 10:0.56 11:0.57142857 12:0.59276018 13:0.60869565 14:0.61373391 15:0.62343096 16:0.63291139 17:0.63374486 18:0.63673469 19:0.6437247 20:0.64489796 21:0.64777328 22:0.64112903 23:0.62753036 24:0.60330579 25:0.58039216 26:0.56078431 27:0.54901961 28:0.55510204 29:0.55294118 30:0.55294118 31:0.54901961 32:0.55327869 33:0.55294118 34:0.55294118 35:0.55294118 36:0.55918367 37:0.55294118 38:0.55294118 39:0.55686275 40:0.57317073 41:0.57254902 42:0.58431373 43:0.59215686 44:0.59915612 45:0.60080645 46:0.61538462 47:0.62 48:0.62025316 49:0.61264822 50:0.60557769 51:0.61044177 52:0.61702128 53:0.6194332 54:0.61538462 55:0.60162602 56:0.61181435 57:0.60323887 58:0.58367347 59:0.58367347 60:0.60330579 61:0.64317181 62:0.61946903 63:0.59090909 64:0.57009346 65:0.57603687 66:0.58441558 67:0.58823529 68:0.62745098 69:0.60784314 70:0.60784314 71:0.61176471 72:0.62650602 73:0.6 74:0.59414226 75:0.6125 76:0.6371308 77:0.64705882 78:0.64313725 79:0.63137255 80:0.63529412 
-60.702014331822646 -36.634249551151761 33.613376587546384 125 0 0 0 1:0.79607843 2:0.75510204 3:0.70852018 4:0.68202765 5:0.67857143 6:0.68584071 7:0.6875 8:0.68949772 9:0.69777778 10:0.72444444 11:0.73214286 12:0.72850679 13:0.73043478 14:0.72103004 15:0.71966527 16:0.71308017 17:0.70781893 18:0.71020408 19:0.70850202 20:0.69795918 21:0.70040486 22:0.7016129 23:0.69635628 24:0.67355372 25:0.65490196 26:0.63529412 27:0.62352941 28:0.62040816 29:0.62352941 30:0.63137255 31:0.63137255 32:0.6352459 33:0.63529412 34:0.63921569 35:0.63529412 36:0.63265306 37:0.62745098 38:0.63529412 39:0.63921569 40:0.64634146 41:0.64705882 42:0.6627451 43:0.69803922 44:0.70886076 45:0.73387097 46:0.74493927 47:0.736 48:0.71729958 49:0.70750988 50:0.70119522 51:0.70281124 52:0.68510638 53:0.69635628 54:0.70040486 55:0.69918699 56:0.71308017 57:0.71659919 58:0.70612245 59:0.71836735 60:0.73966942 61:0.76211454 62:0.77876106 63:0.77727273 64:0.81308411 65:0.79262673 66:0.78354978 67:0.71764706 68:0.74509804 69:0.71764706 70:0.71372549 71:0.72156863 72:0.7751004 73:0.83265306 74:0.86192469 75:0.85833333 76:0.80590717 77:0.76862745 78:0.75294118 79:0.75294118 80:0.75686275 
-0 -0 0 125 0 0 0 1:0.71764706 2:0.75102041 3:0.75784753 4:0.74193548 5:0.74553571 6:0.75663717 7:0.75446429 8:0.75342466 9:0.75555556 10:0.77333333 11:0.77678571 12:0.78733032 13:0.79565217 14:0.79828326 15:0.80334728 16:0.80590717 17:0.81069959 18:0.81632653 19:0.81376518 20:0.80816327 21:0.80566802 22:0.79435484 23:0.77327935 24:0.73140496 25:0.69803922 26:0.6745098 27:0.65490196 28:0.64897959 29:0.64705882 30:0.65098039 31:0.65098039 32:0.6557377 33:0.65098039 34:0.65098039 35:0.64705882 36:0.64897959 37:0.64705882 38:0.65098039 39:0.65882353 40:0.66666667 41:0.66666667 42:0.67843137 43:0.69803922 44:0.70464135 45:0.71370968 46:0.72874494 47:0.724 48:0.71729958 49:0.69960474 50:0.70119522 51:0.70281124 52:0.69787234 53:0.69635628 54:0.69635628 55:0.69918699 56:0.69620253 57:0.69635628 58:0.68571429 59:0.68979592 60:0.69008264 61:0.7092511 62:0.71238938 63:0.73636364 64:0.74766355 65:0.75576037 66:0.74891775 67:0.74117647 68:0.77647059 69:0.76078431 70:0.76078431 71:0.76862745 72:0.80722892 73:0.82857143 74:0.84100418 75:0.85 76:0.83966245 77:0.82352941 78:0.81176471 79:0.80784314 80:0.80784314 
-0 -0 -0 0 0 0 125 1:0.37254902 2:0.32653061 3:0.25112108 4:0.23502304 5:0.23660714 6:0.25663717 7:0.27232143 8:0.29680365 9:0.31111111 10:0.32 11:0.30357143 12:0.28506787 13:0.26956522 14:0.24892704 15:0.25104603 16:0.23206751 17:0.218107 18:0.20408163 19:0.20647773 20:0.2244898 21:0.27935223 22:0.38306452 23:0.51417004 24:0.61983471 25:0.67843137 26:0.70588235 27:0.70980392 28:0.71428571 29:0.71372549 30:0.71764706 31:0.72156863 32:0.71721311 33:0.71764706 34:0.71764706 35:0.72156863 36:0.72653061 37:0.7254902 38:0.72941176 39:0.72941176 40:0.73577236 41:0.72941176 42:0.7372549 43:0.72941176 44:0.71308017 45:0.70967742 46:0.73279352 47:0.736 48:0.73839662 49:0.73517787 50:0.74103586 51:0.73895582 52:0.73191489 53:0.73684211 54:0.74493927 55:0.7398374 56:0.72995781 57:0.72064777 58:0.70612245 59:0.71020408 60:0.71900826 61:0.71806167 62:0.68141593 63:0.65454545 64:0.62616822 65:0.64976959 66:0.66233766 67:0.67843137 68:0.66666667 69:0.62745098 70:0.63137255 71:0.61568627 72:0.54618474 73:0.42857143 74:0.37238494 75:0.37916667 76:0.4092827 77:0.43137255 78:0.44313725 79:0.46666667 80:0.48235294 
-103.41176394262598 -37.663801489793094 -0 125 0 0 0 1:0.54509804 2:0.46122449 3:0.38116592 4:0.37327189 5:0.37053571 6:0.38053097 7:0.38839286 8:0.41552511 9:0.43555556 10:0.44 11:0.4375 12:0.41176471 13:0.38695652 14:0.35193133 15:0.33891213 16:0.32067511 17:0.30452675 18:0.29387755 19:0.29149798 20:0.30612245 21:0.35222672 22:0.44758065 23:0.58299595 24:0.7107438 25:0.80392157 26:0.85882353 27:0.88235294 28:0.90612245 29:0.91372549 30:0.91372549 31:0.90980392 32:0.91803279 33:0.91764706 34:0.92156863 35:0.9254902 36:0.93061224 37:0.94117647 38:0.94117647 39:0.94901961 40:0.96341463 41:0.96862745 42:0.95686275 43:0.95686275 44:0.94514768 45:0.94354839 46:0.94331984 47:0.932 48:0.92405063 49:0.90909091 50:0.90438247 51:0.91164659 52:0.9106383 53:0.92307692 54:0.92712551 55:0.93902439 56:0.94514768 57:0.94736842 58:0.90204082 59:0.89795918 60:0.89256198 61:0.92070485 62:0.89380531 63:0.89090909 64:0.87383178 65:0.88018433 66:0.85714286 67:0.79215686 68:0.75686275 69:0.70196078 70:0.69019608 71:0.67058824 72:0.62248996 73:0.54693878 74:0.49790795 75:0.49583333 76:0.48101266 77:0.48627451 78:0.48235294 79:0.50588235 80:0.52156863 
-125 -125 -125 125 125 0 83.07500746337864 1:0.67843137 2:0.60408163 3:0.55156951 4:0.57142857 5:0.56696429 6:0.55752212 7:0.56696429 8:0.57534247 9:0.57333333 10:0.56444444 11:0.57142857 12:0.59276018 13:0.6 14:0.59227468 15:0.59414226 16:0.59915612 17:0.59670782 18:0.59591837 19:0.60323887 20:0.60816327 21:0.61133603 22:0.61290323 23:0.60728745 24:0.59090909 25:0.57647059 26:0.56862745 27:0.56078431 28:0.56734694 29:0.56078431 30:0.56862745 31:0.56862745 32:0.57377049 33:0.56470588 34:0.56862745 35:0.56862745 36:0.5755102 37:0.57254902 38:0.57647059 39:0.58823529 40:0.60162602 41:0.58823529 42:0.58823529 43:0.60392157 44:0.62025316 45:0.62096774 46:0.61133603 47:0.612 48:0.62869198 49:0.63636364 50:0.62151394 51:0.6184739 52:0.62553191 53:0.62753036 54:0.62348178 55:0.62195122 56:0.65400844 57:0.6437247 58:0.62040816 59:0.6 60:0.62809917 61:0.66079295 62:0.64159292 63:0.62272727 64:0.60280374 65:0.61290323 66:0.62337662 67:0.62352941 68:0.65882353 69:0.64705882 70:0.64313725 71:0.64705882 72:0.65060241 73:0.60408163 74:0.58995816 75:0.61666667 76:0.65822785 77:0.6745098 78:0.67058824 79:0.67058824 80:0.67843137 
-39.270034946410419 -90.92284511996715 -0 0 32.28646109151893 9.3306178472394485 125 1:0.61960784 2:0.51836735 3:0.42152466 4:0.41935484 5:0.41517857 6:0.40265487 7:0.38839286 8:0.39726027 9:0.42222222 10:0.43555556 11:0.41964286 12:0.41176471 13:0.39565217 14:0.3776824 15:0.36820084 16:0.35443038 17:0.34567901 18:0.33877551 19:0.34412955 20:0.34693878 21:0.3562753 22:0.38306452 23:0.44129555 24:0.50413223 25:0.54901961 26:0.58039216 27:0.58431373 28:0.6 29:0.6 30:0.60392157 31:0.60392157 32:0.60655738 33:0.60784314 34:0.60392157 35:0.60392157 36:0.60816327 37:0.60392157 38:0.6 39:0.6 40:0.60569106 41:0.60784314 42:0.60784314 43:0.61960784 44:0.62025316 45:0.63306452 46:0.65182186 47:0.644 48:0.64556962 49:0.63636364 50:0.63346614 51:0.62650602 52:0.6212766 53:0.63562753 54:0.63562753 55:0.6300813 56:0.64978903 57:0.65587045 58:0.64897959 59:0.63265306 60:0.62809917 61:0.66519824 62:0.65929204 63:0.66818182 64:0.64485981 65:0.64976959 66:0.62770563 67:0.6 68:0.60392157 69:0.57254902 70:0.57254902 71:0.56470588 72:0.54618474 73:0.46938776 74:0.42259414 75:0.4125 76:0.41772152 77:0.43921569 78:0.43921569 79:0.45490196 80:0.46666667 
-125 -125 -33.613376587546384 11.678772773906513 0 0 31.074257054518299 1:0.63921569 2:0.57142857 3:0.50672646 4:0.48847926 5:0.48660714 6:0.47787611 7:0.48660714 8:0.49771689 9:0.50666667 10:0.52 11:0.52232143 12:0.50678733 13:0.48695652 14:0.45493562 15:0.44351464 16:0.42616034 17:0.41152263 18:0.40816327 19:0.40890688 20:0.41632653 21:0.42105263 22:0.44354839 23:0.48178138 24:0.52479339 25:0.54901961 26:0.56862745 27:0.57254902 28:0.5877551 29:0.58039216 30:0.58431373 31:0.58431373 32:0.5942623 33:0.59215686 34:0.59607843 35:0.6 36:0.60408163 37:0.59607843 38:0.59607843 39:0.6 40:0.60569106 41:0.6 42:0.60784314 43:0.63137255 44:0.6371308 45:0.63709677 46:0.63967611 47:0.636 48:0.6371308 49:0.63241107 50:0.62948207 51:0.63855422 52:0.63829787 53:0.6437247 54:0.63562753 55:0.64634146 56:0.66244726 57:0.66801619 58:0.64489796 59:0.64897959 60:0.67355372 61:0.7092511 62:0.71238938 63:0.73181818 64:0.74299065 65:0.74193548 66:0.70562771 67:0.62352941 68:0.64313725 69:0.61960784 70:0.61568627 71:0.60784314 72:0.59839357 73:0.54693878 74:0.52719665 75:0.5375 76:0.54008439 77:0.55294118 78:0.54509804 79:0.55294118 80:0.55294118 
-125 -0 -0 -45.882338828376319 0 0 0 1:0.69803922 2:0.61632653 3:0.53363229 4:0.51152074 5:0.51339286 6:0.51769912 7:0.52678571 8:0.53424658 9:0.53777778 10:0.52888889 11:0.50446429 12:0.4841629 13:0.46956522 14:0.44206009 15:0.42677824 16:0.40084388 17:0.3909465 18:0.38367347 19:0.37651822 20:0.39183673 21:0.43724696 22:0.5483871 23:0.69635628 24:0.82644628 25:0.89411765 26:0.92156863 27:0.9254902 28:0.93469388 29:0.93333333 30:0.93333333 31:0.93333333 32:0.93852459 33:0.9372549 34:0.93333333 35:0.93333333 36:0.93061224 37:0.9372549 38:0.93333333 39:0.9372549 40:0.95121951 41:0.95686275 42:0.95686275 43:0.94901961 44:0.93670886 45:0.93951613 46:0.94331984 47:0.936 48:0.92827004 49:0.91699605 50:0.90836653 51:0.89959839 52:0.89361702 53:0.90283401 54:0.90283401 55:0.91056911 56:0.91139241 57:0.90283401 58:0.88163265 59:0.87755102 60:0.88842975 61:0.89427313 62:0.90265487 63:0.87727273 64:0.88785047 65:0.88018433 66:0.89177489 67:0.83921569 68:0.81568627 69:0.77647059 70:0.76862745 71:0.75294118 72:0.71084337 73:0.64081633 74:0.59832636 75:0.6 76:0.5907173 77:0.59607843 78:0.59607843 79:0.61960784 80:0.63137255 
-0 -0 -125 -0 0 0 0 1:0.85098039 2:0.77142857 3:0.71300448 4:0.7235023 5:0.73660714 6:0.7300885 7:0.75 8:0.76255708 9:0.78222222 10:0.8 11:0.81696429 12:0.84615385 13:0.85652174 14:0.84549356 15:0.84518828 16:0.84388186 17:0.8436214 18:0.84081633 19:0.83805668 20:0.83265306 21:0.82591093 22:0.82258065 23:0.80566802 24:0.76859504 25:0.73333333 26:0.70588235 27:0.68627451 28:0.68979592 29:0.68627451 30:0.69411765 31:0.69411765 32:0.69262295 33:0.69019608 34:0.68627451 35:0.68627451 36:0.68571429 37:0.68235294 38:0.67843137 39:0.68235294 40:0.69105691 41:0.69019608 42:0.70196078 43:0.72941176 44:0.74683544 45:0.75806452 46:0.75708502 47:0.752 48:0.74261603 49:0.73517787 50:0.72111554 51:0.72289157 52:0.72340426 53:0.72874494 54:0.71659919 55:0.73170732 56:0.73839662 57:0.74898785 58:0.72653061 59:0.73469388 60:0.76033058 61:0.7753304 62:0.7920354 63:0.79545455 64:0.82242991 65:0.81105991 66:0.8008658 67:0.75686275 68:0.78823529 69:0.78431373 70:0.78039216 71:0.78823529 72:0.81927711 73:0.82040816 74:0.82008368 75:0.82916667 76:0.83966245 77:0.83921569 78:0.82745098 79:0.82745098 80:0.83137255 
-83.954374556230022 -0 -125 -0 0 0 0 1:0.7372549 2:0.71836735 3:0.69955157 4:0.70967742 5:0.70535714 6:0.69911504 7:0.70089286 8:0.71689498 9:0.73333333 10:0.75111111 11:0.75892857 12:0.77375566 13:0.76521739 14:0.75536481 15:0.74895397 16:0.75105485 17:0.74897119 18:0.75102041 19:0.74898785 20:0.74693878 21:0.74898785 22:0.75403226 23:0.75303644 24:0.73966942 25:0.72156863 26:0.70980392 27:0.69803922 28:0.70204082 29:0.69411765 30:0.69803922 31:0.69803922 32:0.69672131 33:0.69019608 34:0.68627451 35:0.68627451 36:0.68979592 37:0.68627451 38:0.68235294 39:0.67843137 40:0.68292683 41:0.67843137 42:0.68235294 43:0.70588235 44:0.71729958 45:0.72983871 46:0.75303644 47:0.744 48:0.74261603 49:0.71541502 50:0.71713147 51:0.72289157 52:0.73191489 53:0.73684211 54:0.72874494 55:0.7398374 56:0.74683544 57:0.74493927 58:0.71428571 59:0.70612245 60:0.73140496 61:0.76211454 62:0.76106195 63:0.75454545 64:0.77102804 65:0.76958525 66:0.77056277 67:0.71372549 68:0.73333333 69:0.71764706 70:0.71764706 71:0.72156863 72:0.73493976 73:0.70612245 74:0.69874477 75:0.69583333 76:0.70464135 77:0.70588235 78:0.71372549 79:0.71764706 80:0.72941176 
-125 -94.654997251519021 -0 -125 0 0 59.775512606844906 1:0.48627451 2:0.50204082 3:0.48430493 4:0.46543779 5:0.45982143 6:0.46902655 7:0.47767857 8:0.48858447 9:0.49333333 10:0.49777778 11:0.5 12:0.4841629 13:0.46956522 14:0.45064378 15:0.44351464 16:0.42194093 17:0.39917695 18:0.38367347 19:0.38461538 20:0.4 21:0.44129555 22:0.52419355 23:0.6194332 24:0.69008264 25:0.73333333 26:0.74509804 27:0.74509804 28:0.75102041 29:0.74901961 30:0.75294118 31:0.75294118 32:0.75409836 33:0.75686275 34:0.76078431 35:0.76470588 36:0.76734694 37:0.76862745 38:0.77254902 39:0.77647059 40:0.78861789 41:0.79215686 42:0.81176471 43:0.81960784 44:0.81012658 45:0.7983871 46:0.8097166 47:0.812 48:0.80590717 49:0.78656126 50:0.78884462 51:0.79518072 52:0.79574468 53:0.80161943 54:0.8097166 55:0.81707317 56:0.82700422 57:0.82995951 58:0.80408163 59:0.80408163 60:0.81818182 61:0.83259912 62:0.82743363 63:0.82272727 64:0.84579439 65:0.84792627 66:0.82251082 67:0.72941176 68:0.71372549 69:0.67058824 70:0.66666667 71:0.65098039 72:0.62248996 73:0.57959184 74:0.55648536 75:0.55833333 76:0.52320675 77:0.51372549 78:0.50588235 79:0.52941176 80:0.54117647 
-125 -125 -125 -90.796433945530211 72.298560654364124 5.5885101417645231 34.22525262704486 1:0.63921569 2:0.61632653 3:0.57847534 4:0.58525346 5:0.58928571 6:0.60176991 7:0.60714286 8:0.63013699 9:0.64444444 10:0.66666667 11:0.66964286 12:0.68325792 13:0.6826087 14:0.6695279 15:0.66108787 16:0.65400844 17:0.65020576 18:0.64897959 19:0.64777328 20:0.64897959 21:0.65182186 22:0.66129032 23:0.66801619 24:0.66528926 25:0.65490196 26:0.64313725 27:0.63137255 28:0.63265306 29:0.62745098 30:0.63137255 31:0.63921569 32:0.63934426 33:0.63921569 34:0.63137255 35:0.62745098 36:0.63265306 37:0.62745098 38:0.63137255 39:0.63921569 40:0.6504065 41:0.64705882 42:0.65490196 43:0.6745098 44:0.6835443 45:0.68548387 46:0.68421053 47:0.684 48:0.67932489 49:0.66798419 50:0.65737052 51:0.65060241 52:0.65531915 53:0.66396761 54:0.66801619 55:0.68292683 56:0.69198312 57:0.69635628 58:0.66122449 59:0.66530612 60:0.68595041 61:0.72687225 62:0.73893805 63:0.75 64:0.76168224 65:0.74654378 66:0.72727273 67:0.6745098 68:0.70588235 69:0.68627451 70:0.68235294 71:0.69019608 72:0.70682731 73:0.69795918 74:0.69456067 75:0.70416667 76:0.70464135 77:0.70196078 78:0.69803922 79:0.69411765 80:0.69803922 
-51.940208393315359 -22.512024307001866 -61.039940542970214 -111.15414399905741 -14.458208537329035 0 0 1:0.50588235 2:0.51428571 3:0.48430493 4:0.48387097 5:0.48660714 6:0.49115044 7:0.49553571 8:0.50684932 9:0.52888889 10:0.54222222 11:0.53571429 12:0.54298643 13:0.55217391 14:0.56652361 15:0.58158996 16:0.59493671 17:0.60082305 18:0.6 19:0.59919028 20:0.60408163 21:0.61538462 22:0.63306452 23:0.63967611 24:0.62809917 25:0.60392157 26:0.58823529 27:0.57254902 28:0.57142857 29:0.56470588 30:0.56862745 31:0.56862745 32:0.56967213 33:0.56862745 34:0.56470588 35:0.56078431 36:0.56326531 37:0.56470588 38:0.56862745 39:0.56470588 40:0.55691057 41:0.54901961 42:0.54901961 43:0.54901961 44:0.53586498 45:0.54032258 46:0.55870445 47:0.572 48:0.57383966 49:0.5770751 50:0.57768924 51:0.57429719 52:0.56170213 53:0.55060729 54:0.55060729 55:0.55691057 56:0.56540084 57:0.5465587 58:0.53469388 59:0.53469388 60:0.50413223 61:0.4845815 62:0.45132743 63:0.47727273 64:0.46261682 65:0.49769585 66:0.51515152 67:0.6 68:0.62745098 69:0.60784314 70:0.60784314 71:0.6 72:0.58232932 73:0.53877551 74:0.52301255 75:0.54583333 76:0.56540084 77:0.57647059 78:0.57254902 79:0.56862745 80:0.58039216 
-10.449713062359375 -0 -125 -0 -57.840352117035088 0 0 1:0.54509804 2:0.56326531 3:0.56502242 4:0.57603687 5:0.58928571 6:0.61061947 7:0.62053571 8:0.62557078 9:0.61333333 10:0.62222222 11:0.62946429 12:0.65158371 13:0.67391304 14:0.69527897 15:0.71548117 16:0.73417722 17:0.73662551 18:0.74693878 19:0.74898785 20:0.74693878 21:0.74493927 22:0.73790323 23:0.72064777 24:0.67768595 25:0.63921569 26:0.61176471 27:0.59607843 28:0.59591837 29:0.59215686 30:0.59607843 31:0.59215686 32:0.58606557 33:0.58039216 34:0.57254902 35:0.57254902 36:0.5755102 37:0.57254902 38:0.57647059 39:0.58039216 40:0.58130081 41:0.56862745 42:0.56470588 43:0.56078431 44:0.54852321 45:0.55241935 46:0.57489879 47:0.592 48:0.59493671 49:0.58498024 50:0.58565737 51:0.58232932 52:0.57446809 53:0.56680162 54:0.56275304 55:0.56910569 56:0.54852321 57:0.52226721 58:0.51428571 59:0.52244898 60:0.49173554 61:0.44493392 62:0.42920354 63:0.45 64:0.42990654 65:0.46082949 66:0.51082251 67:0.65098039 68:0.68627451 69:0.68235294 70:0.68627451 71:0.69019608 72:0.69477912 73:0.66122449 74:0.64853556 75:0.65833333 76:0.68776371 77:0.70588235 78:0.70980392 79:0.70196078 80:0.70588235 
-0 -1.3427202657469262 -0 -0 -0 12.863625246025071 123.11565105084033 1:0.44705882 2:0.43265306 3:0.40358744 4:0.41013825 5:0.41517857 6:0.42920354 7:0.4375 8:0.46118721 9:0.45777778 10:0.46222222 11:0.47321429 12:0.48868778 13:0.49130435 14:0.49356223 15:0.50627615 16:0.51476793 17:0.51440329 18:0.51836735 19:0.51821862 20:0.52653061 21:0.53846154 22:0.55241935 23:0.56275304 24:0.55785124 25:0.54901961 26:0.5372549 27:0.5254902 28:0.52653061 29:0.52941176 30:0.53333333 31:0.53333333 32:0.52868852 33:0.52156863 34:0.52156863 35:0.5254902 36:0.53877551 37:0.52941176 38:0.53333333 39:0.54117647 40:0.55284553 41:0.54117647 42:0.54117647 43:0.54117647 44:0.54008439 45:0.52419355 46:0.54251012 47:0.544 48:0.55696203 49:0.54545455 50:0.5498008 51:0.55823293 52:0.55319149 53:0.54251012 54:0.53441296 55:0.52845528 56:0.53164557 57:0.50607287 58:0.51020408 59:0.51428571 60:0.52066116 61:0.50660793 62:0.46460177 63:0.43636364 64:0.42056075 65:0.4562212 66:0.51515152 67:0.59607843 68:0.62745098 69:0.61176471 70:0.61176471 71:0.60784314 72:0.60240964 73:0.53877551 74:0.50627615 75:0.51666667 76:0.54008439 77:0.57647059 78:0.57647059 79:0.58039216 80:0.58039216 
-44.597583876179087 -29.236437309110553 -8.3681786924748138 -40.344821226420372 -0 0 0 1:0.61960784 2:0.55918367 3:0.49775785 4:0.50230415 5:0.51785714 6:0.53982301 7:0.54464286 8:0.53881279 9:0.52444444 10:0.52444444 11:0.54017857 12:0.5520362 13:0.56956522 14:0.57939914 15:0.59832636 16:0.60337553 17:0.6090535 18:0.62040816 19:0.62753036 20:0.62857143 21:0.63157895 22:0.62903226 23:0.62753036 24:0.60330579 25:0.58823529 26:0.56470588 27:0.55294118 28:0.54693878 29:0.55294118 30:0.55686275 31:0.56078431 32:0.55327869 33:0.54901961 34:0.54509804 35:0.54509804 36:0.54693878 37:0.5372549 38:0.54117647 39:0.54509804 40:0.54065041 41:0.52941176 42:0.52941176 43:0.54117647 44:0.52742616 45:0.53225806 46:0.52631579 47:0.536 48:0.5443038 49:0.56126482 50:0.56175299 51:0.55421687 52:0.54893617 53:0.54251012 54:0.53441296 55:0.52439024 56:0.53586498 57:0.52631579 58:0.55102041 59:0.53469388 60:0.53305785 61:0.47136564 62:0.45132743 63:0.43181818 64:0.43925234 65:0.47926267 66:0.54112554 67:0.65882353 68:0.69803922 69:0.70196078 70:0.70980392 71:0.70588235 72:0.71485944 73:0.67755102 74:0.65271967 75:0.65833333 76:0.67088608 77:0.71764706 78:0.71764706 79:0.71372549 80:0.69411765 
-0 -125 -0 -5.7874958660411409 -0 0 0 1:0.48627451 2:0.46938776 3:0.44394619 4:0.44239631 5:0.44196429 6:0.44690265 7:0.45982143 8:0.47488584 9:0.48 10:0.49333333 11:0.49107143 12:0.51131222 13:0.51304348 14:0.527897 15:0.53556485 16:0.5443038 17:0.54320988 18:0.55102041 19:0.55465587 20:0.55918367 21:0.5708502 22:0.58064516 23:0.59109312 24:0.58264463 25:0.56862745 26:0.55686275 27:0.54509804 28:0.54693878 29:0.54509804 30:0.54901961 31:0.54901961 32:0.54918033 33:0.54117647 34:0.54117647 35:0.54117647 36:0.54693878 37:0.54117647 38:0.54509804 39:0.54509804 40:0.55284553 41:0.54509804 42:0.54901961 43:0.55686275 44:0.5443038 45:0.54032258 46:0.55465587 47:0.564 48:0.57383966 49:0.56521739 50:0.56175299 51:0.55823293 52:0.55319149 53:0.5465587 54:0.5465587 55:0.55691057 56:0.55274262 57:0.53846154 58:0.52244898 59:0.53061224 60:0.51652893 61:0.50220264 62:0.46017699 63:0.47272727 64:0.44859813 65:0.48847926 66:0.5021645 67:0.58039216 68:0.60392157 69:0.58039216 70:0.58039216 71:0.58039216 72:0.57028112 73:0.51836735 74:0.49372385 75:0.50416667 76:0.52742616 77:0.54117647 78:0.54901961 79:0.55294118 80:0.56862745 
-7.580291225463883 -8.7220912698540705 -8.1132248650190881 -9.3306178472394485 -5.5885101417645231 -12.863625246025071 10.136770180207037 1:0.39215686 2:0.30204082 3:0.21524664 4:0.23963134 5:0.24553571 6:0.25221239 7:0.24107143 8:0.25114155 9:0.26222222 10:0.28 11:0.28571429 12:0.29864253 13:0.3 14:0.30042918 15:0.31799163 16:0.32489451 17:0.32921811 18:0.33469388 19:0.34008097 20:0.33877551 21:0.32388664 22:0.31048387 23:0.29149798 24:0.2768595 25:0.2627451 26:0.25490196 27:0.24313725 28:0.24489796 29:0.23921569 30:0.24705882 31:0.24705882 32:0.25409836 33:0.24313725 34:0.24313725 35:0.23921569 36:0.25306122 37:0.24705882 38:0.24313725 39:0.24705882 40:0.2601626 41:0.23921569 42:0.24705882 43:0.24313725 44:0.24050633 45:0.22983871 46:0.2388664 47:0.244 48:0.24894515 49:0.23320158 50:0.22709163 51:0.22088353 52:0.2212766 53:0.2145749 54:0.21052632 55:0.22357724 56:0.23628692 57:0.23076923 58:0.22040816 59:0.22857143 60:0.2231405 61:0.2246696 62:0.17699115 63:0.17727273 64:0.1635514 65:0.20276498 66:0.23809524 67:0.31764706 68:0.37647059 69:0.35686275 70:0.35686275 71:0.36078431 72:0.37349398 73:0.31428571 74:0.30125523 75:0.31666667 76:0.37130802 77:0.40784314 78:0.40392157 79:0.4 80:0.4 
-0 -0 -0 -0 -0 -0 -1.4101699871919626 1:0.35294118 2:0.25714286 3:0.16143498 4:0.14746544 5:0.15178571 6:0.1460177 7:0.15178571 8:0.16894977 9:0.18666667 10:0.19555556 11:0.1875 12:0.19004525 13:0.1826087 14:0.16738197 15:0.15062762 16:0.1350211 17:0.12345679 18:0.11428571 19:0.11740891 20:0.13061224 21:0.17004049 22:0.25 23:0.36842105 24:0.48347107 25:0.56470588 26:0.60392157 27:0.61960784 28:0.63673469 29:0.63921569 30:0.64705882 31:0.64705882 32:0.65163934 33:0.65098039 34:0.65490196 35:0.65882353 36:0.66122449 37:0.65882353 38:0.65882353 39:0.65882353 40:0.66260163 41:0.65490196 42:0.65490196 43:0.65490196 44:0.64135021 45:0.63306452 46:0.6437247 47:0.644 48:0.65400844 49:0.65217391 50:0.64541833 51:0.64257028 52:0.63829787 53:0.64777328 54:0.64777328 55:0.66260163 56:0.66244726 57:0.68016194 58:0.66122449 59:0.64897959 60:0.67355372 61:0.66960352 62:0.65486726 63:0.60454545 64:0.59345794 65:0.61290323 66:0.62337662 67:0.60784314 68:0.59607843 69:0.56470588 70:0.56470588 71:0.5372549 72:0.46184739 73:0.32653061 74:0.25941423 75:0.27083333 76:0.30379747 77:0.34901961 78:0.35294118 79:0.37647059 80:0.38823529 
-77.962488904421065 -109.06733539684161 -31.504807031242677 -124.87314204236249 -0 -123.11565105084033 -8.7266001930150736 1:0.43137255 2:0.3877551 3:0.33183857 4:0.31797235 5:0.32142857 6:0.32743363 7:0.34375 8:0.35616438 9:0.36888889 10:0.37777778 11:0.38392857 12:0.38461538 13:0.3826087 14:0.38197425 15:0.39748954 16:0.40084388 17:0.3909465 18:0.39183673 19:0.39676113 20:0.40816327 21:0.4291498 22:0.46370968 23:0.51012146 24:0.54545455 25:0.56470588 26:0.57254902 27:0.57254902 28:0.58367347 29:0.57647059 30:0.58039216 31:0.57647059 32:0.58196721 33:0.58039216 34:0.58823529 35:0.58823529 36:0.59591837 37:0.59215686 38:0.59607843 39:0.59607843 40:0.61382114 41:0.60784314 42:0.60784314 43:0.60784314 44:0.60337553 45:0.59677419 46:0.61133603 47:0.62 48:0.63291139 49:0.6284585 50:0.62151394 51:0.62650602 52:0.62553191 53:0.62348178 54:0.62348178 55:0.63414634 56:0.6371308 57:0.62348178 58:0.59591837 59:0.6 60:0.59504132 61:0.62114537 62:0.59734513 63:0.60454545 64:0.59345794 65:0.60829493 66:0.6017316 67:0.59215686 68:0.61568627 69:0.6 70:0.60392157 71:0.60392157 72:0.57831325 73:0.50204082 74:0.46861925 75:0.49166667 76:0.53586498 77:0.56862745 78:0.57647059 79:0.57647059 80:0.58431373 
-125 -125 -30.335767608566218 -125 -94.000765233889751 -0 -0 1:0.48627451 2:0.42857143 3:0.367713 4:0.3640553 5:0.37053571 6:0.38053097 7:0.38392857 8:0.39269406 9:0.4 10:0.40888889 11:0.41071429 12:0.40271493 13:0.40869565 14:0.41201717 15:0.41841004 16:0.41350211 17:0.41152263 18:0.41632653 19:0.41700405 20:0.42857143 21:0.45748988 22:0.51612903 23:0.57489879 24:0.62396694 25:0.64705882 26:0.65490196 27:0.65490196 28:0.65714286 29:0.65882353 30:0.66666667 31:0.66666667 32:0.66803279 33:0.6627451 34:0.67058824 35:0.67058824 36:0.66938776 37:0.67058824 38:0.6745098 39:0.67843137 40:0.67886179 41:0.6745098 42:0.67843137 43:0.6745098 44:0.66666667 45:0.66935484 46:0.68421053 47:0.692 48:0.69620253 49:0.6916996 50:0.68924303 51:0.68674699 52:0.68085106 53:0.68016194 54:0.68016194 55:0.71544715 56:0.72151899 57:0.71255061 58:0.67755102 59:0.66530612 60:0.66942149 61:0.65198238 62:0.63274336 63:0.61363636 64:0.59345794 65:0.60829493 66:0.63203463 67:0.69019608 68:0.70980392 69:0.70588235 70:0.71372549 71:0.70196078 72:0.66666667 73:0.59183673 74:0.55230126 75:0.56666667 76:0.59915612 77:0.64705882 78:0.65098039 79:0.65882353 80:0.65098039 
-0 -0 -0 -114.27612247553445 -0 -0 -0 1:0.54509804 2:0.38367347 3:0.25112108 4:0.25806452 5:0.25446429 6:0.26106195 7:0.26785714 8:0.29680365 9:0.30222222 10:0.29777778 11:0.29017857 12:0.28959276 13:0.28695652 14:0.27038627 15:0.27196653 16:0.25738397 17:0.25102881 18:0.24489796 19:0.24291498 20:0.26122449 21:0.29149798 22:0.35887097 23:0.44939271 24:0.52892562 25:0.58039216 26:0.6 27:0.60784314 28:0.62040816 29:0.61960784 30:0.62352941 31:0.62352941 32:0.63114754 33:0.63137255 34:0.63137255 35:0.63137255 36:0.64489796 37:0.64313725 38:0.63921569 39:0.64313725 40:0.65447154 41:0.65098039 42:0.65098039 43:0.65098039 44:0.64978903 45:0.64516129 46:0.65182186 47:0.656 48:0.65822785 49:0.65217391 50:0.64940239 51:0.65060241 52:0.66382979 53:0.66396761 54:0.66396761 55:0.6504065 56:0.67088608 57:0.66801619 58:0.65714286 59:0.64897959 60:0.66115702 61:0.67400881 62:0.6460177 63:0.61818182 64:0.60747664 65:0.61751152 66:0.62770563 67:0.61176471 68:0.62352941 69:0.60392157 70:0.6 71:0.58431373 72:0.53413655 73:0.43673469 74:0.38912134 75:0.40416667 76:0.43459916 77:0.47058824 78:0.4745098 79:0.49019608 80:0.49803922 
